<?xml version="1.0"?>
<MethodSetup Method="MLP::MLP">
  <GeneralInfo>
    <Info name="TMVA Release" value="4.2.1 [262657]"/>
    <Info name="ROOT Release" value="6.12/07 [396295]"/>
    <Info name="Creator" value="todiotal"/>
    <Info name="Date" value="Thu Sep 12 18:37:19 2019"/>
    <Info name="Host" value="Linux cmsbuild87.cern.ch 2.6.32-696.30.1.el6.x86_64 #1 SMP Tue May 22 06:09:36 CEST 2018 x86_64 x86_64 x86_64 GNU/Linux"/>
    <Info name="Dir" value="/afs/cern.ch/work/t/todiotal/MSSM_Analysis/TMVA_new"/>
    <Info name="Training events" value="37154"/>
    <Info name="TrainingTime" value="1.42360228e+03"/>
    <Info name="AnalysisType" value="Classification"/>
  </GeneralInfo>
  <Options>
    <Option name="NCycles" modified="Yes">1000</Option>
    <Option name="HiddenLayers" modified="Yes">30,15,5</Option>
    <Option name="NeuronType" modified="Yes">sigmoid</Option>
    <Option name="RandomSeed" modified="No">1</Option>
    <Option name="EstimatorType" modified="Yes">CE</Option>
    <Option name="NeuronInputType" modified="No">sum</Option>
    <Option name="V" modified="Yes">True</Option>
    <Option name="VerbosityLevel" modified="No">Verbose</Option>
    <Option name="VarTransform" modified="Yes">N</Option>
    <Option name="H" modified="Yes">False</Option>
    <Option name="CreateMVAPdfs" modified="No">False</Option>
    <Option name="IgnoreNegWeightsInTraining" modified="No">False</Option>
    <Option name="TrainingMethod" modified="No">BP</Option>
    <Option name="LearningRate" modified="No">2.000000e-02</Option>
    <Option name="DecayRate" modified="No">1.000000e-02</Option>
    <Option name="TestRate" modified="Yes">10</Option>
    <Option name="EpochMonitoring" modified="No">False</Option>
    <Option name="Sampling" modified="No">1.000000e+00</Option>
    <Option name="SamplingEpoch" modified="No">1.000000e+00</Option>
    <Option name="SamplingImportance" modified="No">1.000000e+00</Option>
    <Option name="SamplingTraining" modified="No">True</Option>
    <Option name="SamplingTesting" modified="No">False</Option>
    <Option name="ResetStep" modified="No">50</Option>
    <Option name="Tau" modified="No">3.000000e+00</Option>
    <Option name="BPMode" modified="No">sequential</Option>
    <Option name="BatchSize" modified="Yes">400</Option>
    <Option name="ConvergenceImprove" modified="No">1.000000e-30</Option>
    <Option name="ConvergenceTests" modified="No">-1</Option>
    <Option name="UseRegulator" modified="Yes">False</Option>
    <Option name="UpdateLimit" modified="No">10000</Option>
    <Option name="CalculateErrors" modified="No">False</Option>
    <Option name="WeightRange" modified="No">1.000000e+00</Option>
  </Options>
  <Variables NVar="12">
    <Variable VarIndex="0" Expression="dimuon_deltar" Label="dimuon_deltar" Title="dimuon_deltar" Unit="" Internal="dimuon_deltar" Type="F" Min="0.00000000e+00" Max="5.40202522e+00"/>
    <Variable VarIndex="1" Expression="dimuon_deltaphi" Label="dimuon_deltaphi" Title="dimuon_deltaphi" Unit="" Internal="dimuon_deltaphi" Type="F" Min="-3.14151931e+00" Max="3.14158106e+00"/>
    <Variable VarIndex="2" Expression="dimuon_deltaeta" Label="dimuon_deltaeta" Title="dimuon_deltaeta" Unit="" Internal="dimuon_deltaeta" Type="F" Min="-4.49916363e+00" Max="4.64319372e+00"/>
    <Variable VarIndex="3" Expression="Met_Pt" Label="Met_Pt" Title="Met_Pt" Unit="" Internal="Met_Pt" Type="F" Min="4.10882384e-01" Max="5.70549011e+02"/>
    <Variable VarIndex="4" Expression="btag_jet" Label="btag_jet" Title="btag_jet" Unit="" Internal="btag_jet" Type="I" Min="0.00000000e+00" Max="5.00000000e+00"/>
    <Variable VarIndex="5" Expression="no_btag_jet" Label="no_btag_jet" Title="no_btag_jet" Unit="" Internal="no_btag_jet" Type="I" Min="0.00000000e+00" Max="9.00000000e+00"/>
    <Variable VarIndex="6" Expression="bjet_pt" Label="bjet_pt" Title="bjet_pt" Unit="" Internal="bjet_pt" Type="F" Min="2.00023632e+01" Max="8.76736267e+02"/>
    <Variable VarIndex="7" Expression="bjet_eta" Label="bjet_eta" Title="bjet_eta" Unit="" Internal="bjet_eta" Type="F" Min="-2.39973402e+00" Max="2.39997959e+00"/>
    <Variable VarIndex="8" Expression="btag_jet_over2.4" Label="btag_jet_over2.4" Title="btag_jet_over2.4" Unit="" Internal="btag_jet_over2.4" Type="I" Min="0.00000000e+00" Max="2.00000000e+00"/>
    <Variable VarIndex="9" Expression="delta_R_bjet_dimuon" Label="delta_R_bjet_dimuon" Title="delta_R_bjet_dimuon" Unit="" Internal="delta_R_bjet_dimuon" Type="F" Min="4.70630080e-02" Max="8.67660904e+00"/>
    <Variable VarIndex="10" Expression="delta_pt_mupair_1bjet" Label="delta_pt_mupair_1bjet" Title="delta_pt_mupair_1bjet" Unit="" Internal="delta_pt_mupair_1bjet" Type="F" Min="-5.19003723e+02" Max="6.13036194e+02"/>
    <Variable VarIndex="11" Expression="delta_eta_mupair_1bjet" Label="delta_eta_mupair_1bjet" Title="delta_eta_mupair_1bjet" Unit="" Internal="delta_eta_mupair_1bjet" Type="F" Min="-8.48608875e+00" Max="7.38653421e+00"/>
  </Variables>
  <Spectators NSpec="0"/>
  <Classes NClass="2">
    <Class Name="Signal" Index="0"/>
    <Class Name="Background" Index="1"/>
  </Classes>
  <Transformations NTransformations="1">
    <Transform Name="Normalize">
      <Selection>
        <Input NInputs="12">
          <Input Type="Variable" Label="dimuon_deltar" Expression="dimuon_deltar"/>
          <Input Type="Variable" Label="dimuon_deltaphi" Expression="dimuon_deltaphi"/>
          <Input Type="Variable" Label="dimuon_deltaeta" Expression="dimuon_deltaeta"/>
          <Input Type="Variable" Label="Met_Pt" Expression="Met_Pt"/>
          <Input Type="Variable" Label="btag_jet" Expression="btag_jet"/>
          <Input Type="Variable" Label="no_btag_jet" Expression="no_btag_jet"/>
          <Input Type="Variable" Label="bjet_pt" Expression="bjet_pt"/>
          <Input Type="Variable" Label="bjet_eta" Expression="bjet_eta"/>
          <Input Type="Variable" Label="btag_jet_over2.4" Expression="btag_jet_over2.4"/>
          <Input Type="Variable" Label="delta_R_bjet_dimuon" Expression="delta_R_bjet_dimuon"/>
          <Input Type="Variable" Label="delta_pt_mupair_1bjet" Expression="delta_pt_mupair_1bjet"/>
          <Input Type="Variable" Label="delta_eta_mupair_1bjet" Expression="delta_eta_mupair_1bjet"/>
        </Input>
        <Output NOutputs="12">
          <Output Type="Variable" Label="dimuon_deltar" Expression="dimuon_deltar"/>
          <Output Type="Variable" Label="dimuon_deltaphi" Expression="dimuon_deltaphi"/>
          <Output Type="Variable" Label="dimuon_deltaeta" Expression="dimuon_deltaeta"/>
          <Output Type="Variable" Label="Met_Pt" Expression="Met_Pt"/>
          <Output Type="Variable" Label="btag_jet" Expression="btag_jet"/>
          <Output Type="Variable" Label="no_btag_jet" Expression="no_btag_jet"/>
          <Output Type="Variable" Label="bjet_pt" Expression="bjet_pt"/>
          <Output Type="Variable" Label="bjet_eta" Expression="bjet_eta"/>
          <Output Type="Variable" Label="btag_jet_over2.4" Expression="btag_jet_over2.4"/>
          <Output Type="Variable" Label="delta_R_bjet_dimuon" Expression="delta_R_bjet_dimuon"/>
          <Output Type="Variable" Label="delta_pt_mupair_1bjet" Expression="delta_pt_mupair_1bjet"/>
          <Output Type="Variable" Label="delta_eta_mupair_1bjet" Expression="delta_eta_mupair_1bjet"/>
        </Output>
      </Selection>
      <Class ClassIndex="0">
        <Ranges>
          <Range Index="0" Min="0.0000000000000000e+00" Max="5.4020252227783203e+00"/>
          <Range Index="1" Min="-3.1414880752563477e+00" Max="3.1415810585021973e+00"/>
          <Range Index="2" Min="-4.4991636276245117e+00" Max="4.6431937217712402e+00"/>
          <Range Index="3" Min="4.1088238358497620e-01" Max="2.3772485351562500e+02"/>
          <Range Index="4" Min="0.0000000000000000e+00" Max="3.0000000000000000e+00"/>
          <Range Index="5" Min="0.0000000000000000e+00" Max="7.0000000000000000e+00"/>
          <Range Index="6" Min="2.0002363204956055e+01" Max="8.7673626708984375e+02"/>
          <Range Index="7" Min="-2.3997340202331543e+00" Max="2.3999795913696289e+00"/>
          <Range Index="8" Min="0.0000000000000000e+00" Max="2.0000000000000000e+00"/>
          <Range Index="9" Min="1.1396276205778122e-01" Max="8.6766090393066406e+00"/>
          <Range Index="10" Min="-1.8165545654296875e+02" Max="4.3435928344726562e+02"/>
          <Range Index="11" Min="-8.4860887527465820e+00" Max="7.3865342140197754e+00"/>
        </Ranges>
      </Class>
      <Class ClassIndex="1">
        <Ranges>
          <Range Index="0" Min="2.9065495356917381e-02" Max="5.0268402099609375e+00"/>
          <Range Index="1" Min="-3.1415193080902100e+00" Max="3.1411995887756348e+00"/>
          <Range Index="2" Min="-4.1974229812622070e+00" Max="4.5366702079772949e+00"/>
          <Range Index="3" Min="5.2718544006347656e-01" Max="5.7054901123046875e+02"/>
          <Range Index="4" Min="0.0000000000000000e+00" Max="5.0000000000000000e+00"/>
          <Range Index="5" Min="0.0000000000000000e+00" Max="9.0000000000000000e+00"/>
          <Range Index="6" Min="2.0003225326538086e+01" Max="6.5498583984375000e+02"/>
          <Range Index="7" Min="-2.3989634513854980e+00" Max="2.3995985984802246e+00"/>
          <Range Index="8" Min="0.0000000000000000e+00" Max="1.0000000000000000e+00"/>
          <Range Index="9" Min="4.7063007950782776e-02" Max="6.7841825485229492e+00"/>
          <Range Index="10" Min="-5.1900372314453125e+02" Max="6.1303619384765625e+02"/>
          <Range Index="11" Min="-6.1712384223937988e+00" Max="6.7062315940856934e+00"/>
        </Ranges>
      </Class>
      <Class ClassIndex="2">
        <Ranges>
          <Range Index="0" Min="0.0000000000000000e+00" Max="5.4020252227783203e+00"/>
          <Range Index="1" Min="-3.1415193080902100e+00" Max="3.1415810585021973e+00"/>
          <Range Index="2" Min="-4.4991636276245117e+00" Max="4.6431937217712402e+00"/>
          <Range Index="3" Min="4.1088238358497620e-01" Max="5.7054901123046875e+02"/>
          <Range Index="4" Min="0.0000000000000000e+00" Max="5.0000000000000000e+00"/>
          <Range Index="5" Min="0.0000000000000000e+00" Max="9.0000000000000000e+00"/>
          <Range Index="6" Min="2.0002363204956055e+01" Max="8.7673626708984375e+02"/>
          <Range Index="7" Min="-2.3997340202331543e+00" Max="2.3999795913696289e+00"/>
          <Range Index="8" Min="0.0000000000000000e+00" Max="2.0000000000000000e+00"/>
          <Range Index="9" Min="4.7063007950782776e-02" Max="8.6766090393066406e+00"/>
          <Range Index="10" Min="-5.1900372314453125e+02" Max="6.1303619384765625e+02"/>
          <Range Index="11" Min="-8.4860887527465820e+00" Max="7.3865342140197754e+00"/>
        </Ranges>
      </Class>
    </Transform>
  </Transformations>
  <MVAPdfs/>
  <Weights>
    <Layout NLayers="5">
      <Layer Index="0" NNeurons="13">
        <Neuron NSynapses="30">
          -3.3982170546196161e-01 2.8418571554504850e+00 8.0310706074068261e-01 1.6087938849518617e+00 -1.9869822461709403e+00 -1.2594268680145679e+00 -6.8050661391852141e-01 6.6920520426920254e+00 -3.7523699102243384e+00 -4.1425854214320426e+00 -1.6623093654234951e+00 1.2600810628173256e+00 -1.3399667660549106e+00 -1.1473599749680434e-01 -5.0506141309208825e+00 -2.3347713525245410e+00 -3.4378475166373812e-01 2.8087617003776320e+00 6.9026641603634264e-01 2.6560599434418846e+00 -3.2422930548464883e+00 -6.9853698813323803e-02 3.2125636849291754e+00 -2.3023959467694999e+00 -1.3351920141668521e+00 1.9758532824403390e+00 2.5321968116253157e+00 -3.8641103364575109e+00 -5.6701416406828056e+00 2.1025642104425231e+00 
        </Neuron>
        <Neuron NSynapses="30">
          7.4357276328991795e-01 9.5034433454105438e-01 -2.6482044294016149e-01 -1.7234038074323962e-01 -1.7268666791695730e-01 -1.7676282517516448e-01 -1.1312674767334105e+00 -2.4924557996034653e+00 6.7247525448875034e-01 5.6467315261710560e-01 1.2011109694089395e+00 5.7722107594160588e-01 2.0737199170527107e+00 2.1481501524437365e-02 5.1291433940788000e-01 -8.4352427868234114e-01 5.9919851232049182e-01 -8.1340381768552505e-01 7.3813156972475680e-01 6.1165584592744215e-01 1.3764254174183375e+00 1.2180294562644365e+00 -1.3145644746719045e+00 7.8317784865852336e-01 -1.5057355770035630e+00 -3.3326406207183396e-01 -1.1334730191292386e+00 -8.9174882036496672e-01 2.8302918167440025e+00 -4.1776615968902878e-02 
        </Neuron>
        <Neuron NSynapses="30">
          -1.6213651852612951e+00 5.3211429429194479e-01 -2.8994278738853269e-01 7.2288008627115408e-01 1.9722911533092933e+00 -3.5329161916143681e-01 1.9332901251163892e-01 5.7768111853648996e-01 5.8992475244668857e-02 -8.2843900306386065e-01 -8.3347089744758196e-01 -1.0436042434027084e+00 6.4780153411373342e-01 1.4575669845839581e+00 1.6638000997027463e-01 -9.8275710249819714e-01 -1.9037236461099138e+00 -1.7430718558722802e+00 1.2297244758327401e+00 8.8825370073561605e-01 1.4174332538885410e+00 9.5853252544659651e-01 1.1640264017321973e+00 -1.0552420495752151e+00 -8.6666153389195899e-01 -1.1996193708164803e-01 1.1623390766241821e+00 -1.6031697707720127e+00 -1.8605633649446827e+00 -1.2983741470759147e+00 
        </Neuron>
        <Neuron NSynapses="30">
          -1.5423172826648265e-01 2.2720331016534936e-01 1.8684615397619422e+00 -1.6161969548800359e+00 -8.9434486923462408e-01 1.8553522719392908e+00 -2.7162168167890494e-01 1.6728991603447294e+00 -2.5879936333410560e+00 -3.4692394454468078e-01 -1.7979953262989155e+00 -9.6492476019373963e-01 5.9432959206486657e-01 3.0725425667938491e+00 -2.5479413336451877e+00 1.4464309300708367e+00 -9.8481796917790076e-01 -7.3151809213663791e-03 1.2916750062849962e+00 1.5075727339531830e+00 -3.2045263878393397e+00 6.6272957127656118e-01 1.7816477958380242e-01 7.6061687395550526e-01 -6.9288512089782872e-01 1.7529229879675996e+00 1.0346770561335086e+00 -1.4089710140291503e+00 -1.7601244878140456e+00 -3.9320164951574538e-01 
        </Neuron>
        <Neuron NSynapses="30">
          -1.5487595482799854e+00 3.5233174670424000e-01 -2.1973403433047603e-01 1.8406165694573688e+00 6.9319383734103324e-01 1.3632483953490793e-01 -6.7889174512675626e-03 2.7319557261912077e+00 -2.6459542902560598e+00 4.5231482547929464e-01 2.3567683140813567e-01 -1.2685613005267820e+00 5.6932562549283150e-01 -3.9744209696528149e-01 -1.1146346231613165e+00 9.5189855785314570e-01 1.7433069181055107e+00 -1.3172511465425563e+00 1.2271006601929790e+00 2.4282549182326729e+00 4.0028488447740690e-01 4.2451610706509219e-01 -1.5340715723159881e+00 -1.1719787712250260e-01 -9.6214177802463929e-01 1.6003944461109538e+00 1.7401937457772625e+00 -9.0272603140994412e-01 -2.3507027979533186e+00 5.2007665062699060e-01 
        </Neuron>
        <Neuron NSynapses="30">
          -1.2872467655143629e+00 4.2579617467915909e-01 1.9671984205150643e+00 -3.7279815099555258e-01 -7.9276298711618098e-01 5.5811696111639253e-01 1.2846894331391359e+00 3.5158163139926564e+00 -3.5174185045293925e-02 -1.6573751003616468e+00 1.7029249103680768e+00 1.0673405988726967e+00 5.0439218939093022e-01 2.0719001614520400e+00 1.4796337604868193e-01 -4.6700778927298972e-02 -6.8873189427759163e-01 1.3625688459199108e+00 4.8173781016035616e-01 1.7664269332607274e-01 2.9865836495689607e-01 1.1141185640931803e+00 -1.0267307834859880e+00 1.9982726058630818e+00 2.6686353494316424e+00 -2.1199363656858545e+00 1.1548343789386455e+00 -1.4288630591058002e-01 -1.3611812427106162e+00 -1.4587017329015255e+00 
        </Neuron>
        <Neuron NSynapses="30">
          -1.4673420865251487e+00 1.8820408446351562e+00 1.9040084974832989e+00 -1.7300135203259515e+00 -2.6731007213639407e-01 -2.1454890703070628e-01 9.1795467498946182e-01 1.0118886147704620e+01 -3.5318584106990967e+00 -3.3331851503001140e+00 -9.6640278927454526e-01 3.0071918146355889e+00 1.3562833200468567e+00 3.2075494864236189e+00 -4.1474133990575970e+00 -3.2949068716718299e+00 -2.0245318974186213e+00 2.6967585327073667e+00 2.2624965699482353e+00 1.0193778952544699e+00 -4.3784823337222036e+00 1.2671926552629147e+00 1.7675104401241266e+00 -3.3714050136455129e+00 2.0472615868082662e+00 2.4604051498968076e+00 8.6811100779809391e-01 -2.2727076857104258e+00 -4.4515213910730225e+00 3.7644253452637151e+00 
        </Neuron>
        <Neuron NSynapses="30">
          5.2208333657811190e-01 1.5247953511823278e-01 -1.8687571132308360e+00 -9.5710654502396286e-01 1.5810456648734339e+00 1.4626525719708008e+00 6.9158110875777612e-01 -4.0367328681312085e+00 2.4735424362655589e+00 5.4105669353135299e-01 -1.0367111981737682e+00 -6.9604760827476708e-01 -1.5295824879089053e+00 -7.9690142318808821e-01 2.7671305081968702e+00 -7.6423068938916483e-01 6.3402992502777489e-01 -2.8484948208873084e-01 -2.9850489534842310e+00 -5.7876436129336084e-01 2.5009429967725656e+00 2.4614841204445098e-01 3.7191340545596341e-01 -3.4301240446382159e-01 1.3506641262718229e+00 -2.7252641148933043e+00 -1.4542034391282627e-02 9.4757541499286202e-01 2.8427545276140385e+00 -1.1984168841687743e+00 
        </Neuron>
        <Neuron NSynapses="30">
          -1.8476871954445977e+00 1.1959342568964110e-01 -1.7033106554698192e+00 -1.6013535802730061e+00 -1.9640469714998465e+00 3.4655258201666678e-01 -3.2839111711525071e-01 3.2294725644839204e+00 -3.4858973807765248e-01 -1.9861342721881436e+00 3.2602271875126171e-01 1.6157571507158092e-01 -1.1558923733521402e-02 3.7461819792562152e+00 -1.0564865152561371e+00 -1.6825677842104034e+00 -1.5592381969626530e+00 3.4187422758704282e-02 7.4441510865403160e-01 5.9867470509206197e-02 -1.8651517922459167e+00 9.9433254313154784e-01 2.1977649584496612e+00 -4.0930246005477450e-01 1.0171497024222214e+00 -1.2078372921646501e-01 -9.6570491365516409e-01 2.6266157940075324e-01 -2.5347554785880253e+00 3.3503868114409119e-01 
        </Neuron>
        <Neuron NSynapses="30">
          -1.0761605674769963e+00 1.3962124025183689e+00 1.2544407411127958e+00 3.0075325833308836e-01 -3.5206623213793703e-01 -5.2924151710300626e-02 1.7693497866123182e+00 1.9395419364221140e+00 3.9550925839169288e-01 -9.1416182703110804e-01 4.1565421182307510e-01 3.3679752590213746e-01 -1.6349038548427968e+00 -7.9689876036728879e-01 -2.9733196166673324e+00 -2.3454034359976856e+00 -1.3944093842598384e+00 2.5056447043297831e+00 -1.7795768463655310e+00 2.4891072832653305e+00 -2.1330122386662391e+00 1.2470398352301935e+00 3.1876215476291148e-01 7.9417302985420643e-02 8.4562433059370501e-01 -8.0617418823651821e-01 7.2856835401864806e-01 -5.1962196610813594e-01 -2.9780310216924990e+00 -8.6732790498388501e-02 
        </Neuron>
        <Neuron NSynapses="30">
          -1.6982650287147594e+00 -8.4560022832414108e-02 1.8116943961947563e+00 -5.9020005854448443e-01 2.2037381612933210e-01 -8.1038198328475908e-01 -1.1000017525565255e+00 2.2193768372177995e+00 -2.6618311338649030e+00 -3.3484130623632797e+00 8.2618363866957967e-01 -4.2453041008449333e-01 -1.5703300409526519e+00 2.2331118469594928e+00 -2.4670272821705095e+00 -2.3645213163301642e+00 1.8735201475382885e+00 -1.0058975449913519e+00 1.8068047280186084e+00 2.0975747419684083e+00 -2.8656051791071016e+00 -1.6126191891207320e-01 1.2543630596706326e+00 -2.6599429593402659e+00 4.3297569329685237e-01 3.1532354596995673e+00 1.9949158142287002e+00 1.5439002976649854e-01 -4.2022206358211127e+00 2.6831716498008777e+00 
        </Neuron>
        <Neuron NSynapses="30">
          -1.9753460655450170e+00 7.2960445667802798e-01 -1.6665344240559044e+00 -1.8584588029231648e+00 -5.9685302334058542e-03 1.0438765155067460e+00 4.6257122841326448e-01 3.6151722751472160e+00 -3.4477963042990112e-01 -9.4724129798061540e-01 -9.5207936767881407e-01 4.0246034220233318e-01 1.9736931504148940e+00 -3.8400940187062049e-01 -4.9655916336277584e-01 -1.4315294563420167e+00 -3.1091997486591400e-01 1.6569265232803435e-01 1.0223540979804235e+00 -1.0527993546409780e+00 1.6752060516818362e-01 1.4913703669339249e+00 5.3544889400458384e-01 -3.0288788825153912e-01 -8.8233005254367725e-01 -1.2030474111844547e+00 -1.4542514569765552e+00 3.1133541288081051e-01 -2.9025531388306982e+00 -1.1527209647459713e+00 
        </Neuron>
        <Neuron NSynapses="30">
          4.5076765176547789e-01 -2.2081218856777967e+00 -1.3523137375720933e+00 -1.5622650202208510e+00 1.0873139372639651e+00 -1.6444808384162444e+00 -2.4124534311791552e+00 -5.1671992376147697e+00 7.0627185359816580e-01 -6.2795216016965349e-01 1.0528506225084624e+00 -2.5659762983469889e+00 -1.0245257294401608e+00 -1.1291614044077343e-01 2.7523139093544211e+00 9.5935289969341431e-01 1.6309184510225805e-01 3.0093747305794560e-01 1.0254055098342703e-01 -1.1257729431876204e+00 1.1009278551322561e+00 -1.3533044283908275e+00 -1.9407862824352280e+00 8.6496528448668875e-01 1.4629718261671812e-01 -2.1698015013231658e-01 1.5381808175914585e-01 1.7974092669608039e+00 5.2217597815376928e+00 -2.3981206145042813e+00 
        </Neuron>
      </Layer>
      <Layer Index="1" NNeurons="31">
        <Neuron NSynapses="15">
          2.2266277880184604e+00 6.1598961996714452e-01 -1.1142457325476860e+00 -5.0821037681959147e-01 -1.1062858161343274e+00 2.8025221982053270e+00 -1.0800415400573238e+00 4.0997280229741423e-01 1.1973825712532424e-01 -4.4867766297200473e-01 1.4567030645129049e+00 1.9816514382434898e+00 -3.0491475044263217e-01 -9.0990161265553049e-01 2.1098559519977971e+00 
        </Neuron>
        <Neuron NSynapses="15">
          -2.6973650683714001e+00 5.0140072631870880e-01 7.3249155366905960e-01 -3.7934628574900353e-01 -8.2597691929502626e-01 -3.6980178775496991e-01 -8.6954635035949934e-01 3.1578343516156798e-01 -1.7051058957704965e+00 3.2648801898468838e-01 -1.0222618853923773e-01 1.6538218792748967e+00 1.2860634944404383e+00 1.9082603935769555e+00 -7.0860814528541127e-01 
        </Neuron>
        <Neuron NSynapses="15">
          -5.6924116157426008e-01 4.3080581152707897e-01 1.6846129122852096e+00 -1.8604146855230044e+00 -1.3042568413390361e+00 -7.0802151779178168e-01 -1.4611713271394353e+00 -1.6842710533279046e+00 -1.4389104163154876e+00 7.8220146343861752e-01 3.3313957008943809e-02 -1.9724231073230054e+00 -1.9236111128410425e+00 -4.3211280781528166e-02 1.7764280646679333e+00 
        </Neuron>
        <Neuron NSynapses="15">
          2.1162000697315295e+00 1.0891188240272320e+00 1.7894777291671857e-01 -2.1434846107454080e+00 -1.5836846996709039e-01 4.3931379828008099e-01 -3.1388770070871321e+00 -1.2231405092687762e+00 -1.5062573840547158e+00 -1.5798028405458235e+00 1.2720538582078909e+00 1.4830665965179228e+00 -3.6157400248367355e-01 -3.5882782525163692e-01 -2.9167473374917446e-01 
        </Neuron>
        <Neuron NSynapses="15">
          2.5285512672669772e+00 -5.3090777638056730e-01 1.4682528444225522e+00 1.4575965255388814e+00 1.4744504524678355e+00 1.4783854093124820e+00 -5.5136163882681954e-01 -2.4957573765164551e+00 -3.7610716334337352e-01 1.7656791107235783e+00 -6.6688307375541034e-01 2.0488048134310680e-01 -3.1219515504056733e-01 -1.0223248577927839e+00 1.7084204190292747e+00 
        </Neuron>
        <Neuron NSynapses="15">
          1.0128020470029770e+00 -7.7090415186242545e-01 -8.5316438331960487e-01 -7.4918115706520447e-02 1.8034653948321770e+00 8.4963050961832121e-01 -9.2873552273927718e-01 -1.9335834999928467e+00 1.5800916552955997e+00 2.6768625147023950e-01 -1.2651631037857227e+00 -1.2253205091621240e-01 -1.0583593283172128e+00 9.1330739776781267e-01 1.5754256267801590e+00 
        </Neuron>
        <Neuron NSynapses="15">
          -7.1594471167774210e-01 -9.9693596984387511e-01 1.4354111070925395e+00 1.1946383796252689e+00 3.0392681287044016e-01 -9.2625634633678282e-03 -1.1471612558585067e+00 -1.2772073238357753e+00 1.0485662014788586e+00 3.9198052504168412e-01 3.9130445557731391e-01 -1.7907973529836143e+00 -1.8422858121335546e+00 -1.7664335872651873e+00 -4.8956806816364334e-01 
        </Neuron>
        <Neuron NSynapses="15">
          -2.7021067255278797e+00 3.4567084525608205e-01 -1.6712041639090671e+00 1.5061932521174379e+00 2.6184365871775495e-01 -2.7103365297748114e+00 1.8556639236657342e+00 1.7468852323719741e+00 1.7066703366112654e+00 -1.1467016796069958e-01 -7.3948764966399816e-01 1.7315697005101409e+00 -1.8838249151238549e+00 2.0252141894061308e+00 -1.7264864615573687e+00 
        </Neuron>
        <Neuron NSynapses="15">
          2.3076799888208592e+00 -6.1002400048878547e-01 1.8011158284301023e+00 -4.3739661507360628e-01 4.9041789657235146e-01 1.0881660538609566e+00 -2.3969610726446091e+00 2.7448932421766803e-01 -2.1774892657066554e+00 6.4208436213124020e-01 5.1740048497300783e-01 -1.2620659656945326e+00 8.3682450146709542e-01 -2.6578195390661326e+00 1.5976012193019489e+00 
        </Neuron>
        <Neuron NSynapses="15">
          2.0065264592023935e+00 1.2981644587625978e+00 3.4429327326649219e+00 1.2689652298471654e+00 -1.9683684063054465e+00 1.2546742366919952e+00 -2.2478269136737832e+00 2.4717316045991569e-01 -2.4692994409153184e+00 -4.0686200308270321e-01 -9.4412237142737054e-01 -1.8156349911202072e-01 -1.4137349517083246e+00 -1.7829223828012404e+00 -1.0181975542316168e+00 
        </Neuron>
        <Neuron NSynapses="15">
          6.0035795412450810e-01 3.6627262931702098e-01 2.0810079157986405e-01 -1.5839151745290609e+00 4.9064582802239171e-01 2.3396137390765204e+00 -1.5849259243760874e+00 -1.5605078975552078e+00 5.0027344318142777e-02 -6.9619972289805010e-01 2.2428678005991837e-01 9.6753633734832500e-01 -1.4226204802457534e+00 -1.2533059020631072e+00 7.0422899881596626e-02 
        </Neuron>
        <Neuron NSynapses="15">
          -1.2551367884716029e+00 -7.6335216661608141e-01 -6.9521476060042753e-01 1.1418308393503609e+00 -1.8697362995606968e+00 2.8106485471279830e+00 9.0405183297899749e-01 1.4951482759423180e+00 6.3700526774595367e-01 5.3802696724320886e-01 -2.2134761198572228e-01 -8.7570614390379908e-01 -2.0307235639450165e+00 -4.8582830440376684e-01 -8.8476225572423339e-01 
        </Neuron>
        <Neuron NSynapses="15">
          1.6581027599554703e+00 2.8976870167596380e-01 4.2038059859456001e-01 1.2635406801371689e+00 1.2174380160124458e+00 -8.4245826115365219e-01 2.7546909645379852e-01 -1.6976609756840895e+00 4.3272315923241406e-01 -1.8432824253800237e+00 3.6507666292889214e-02 -1.8428521259673911e-01 1.0297899973524747e+00 -2.3275350795031482e+00 4.1331664085813252e-01 
        </Neuron>
        <Neuron NSynapses="15">
          -1.5810133946787535e+00 -1.2702480236607269e-01 1.0716079332936870e+00 -5.5674791312589123e-01 5.4632569497037786e-01 -8.8535360992991807e-01 3.5678681165578918e-01 -5.9491473976128162e-01 4.6032148767655567e-01 -1.6704056391659463e+00 -1.1382652796883801e+00 1.9241496647699337e+00 -1.8292524675738602e+00 -1.0691777022233415e+00 -9.3943160147330862e-01 
        </Neuron>
        <Neuron NSynapses="15">
          2.3675790689086500e+00 2.1371508699087993e+00 2.7791886709270766e+00 -1.7810613110514244e+00 7.5020030394519122e-01 2.6238161399551863e+00 -1.1720817898821576e+00 -1.5238701320179071e+00 -3.7699636878381040e+00 -3.3791887608908155e-01 -8.1991313320185943e-01 1.9339351502921127e+00 -8.2418516093209560e-01 -1.2698138758461144e+00 -4.0492311404319303e-01 
        </Neuron>
        <Neuron NSynapses="15">
          2.0981622501455250e+00 4.3663386330540366e-01 2.5796755191757916e+00 -9.7405247541543061e-01 -1.4606714990012237e+00 2.4578233801718516e+00 -6.7423782913777841e-01 1.2696766480062760e+00 -1.8748681577618573e+00 -1.2965293682883077e+00 -1.4914805634366370e+00 -1.2724980606376555e+00 -7.3865599574562857e-01 -1.7123107922944862e+00 7.7672576468169752e-01 
        </Neuron>
        <Neuron NSynapses="15">
          5.0491158347665932e-01 -7.9888456210064718e-01 1.6274280601140640e+00 -2.0334033583441657e+00 -1.2105863349294603e+00 2.0161846669920425e+00 -2.6432999756341813e+00 9.6985932435343369e-02 -2.9650229504232645e-01 -1.9187821306037955e+00 -6.8782581866890824e-01 -1.0402151217755113e+00 -6.1709580567943442e-02 5.8970798947539704e-01 -5.5372285762976292e-01 
        </Neuron>
        <Neuron NSynapses="15">
          -1.4283992704357955e+00 -1.9150902980436137e+00 5.9209106098732533e-01 -1.3673634881459620e-01 1.1530584503263173e+00 -8.7899318614787292e-01 -3.9714155050533295e-01 -1.6931084249319359e+00 -7.4225719567357662e-01 5.3528897890112004e-01 7.0018772190491274e-01 1.4752984728097196e-01 -1.6998140021296315e+00 1.2479983742526422e+00 -9.4938158291747149e-02 
        </Neuron>
        <Neuron NSynapses="15">
          -8.6385202490248647e-01 1.8397502236704677e+00 1.3136337478897773e+00 -1.6166781623819984e+00 -1.1455839835110890e+00 -1.7187135088387864e+00 1.8049860557729333e-01 1.3200666799655181e+00 8.3429887128940039e-01 9.0624659624566073e-01 -2.1350373232166291e+00 -6.3082565292390447e-01 -9.7146844080323524e-01 -1.7246625815817134e-02 1.7896157560989867e+00 
        </Neuron>
        <Neuron NSynapses="15">
          -2.1914250047668440e+00 1.2789181552668123e+00 -1.8372962720951174e+00 8.1663503735667442e-02 -2.0132790573986044e+00 6.8597353198165079e-01 1.1176674301818297e+00 1.7223702219416932e+00 -9.7571054389448997e-01 1.5135747995497255e+00 5.7865115060583128e-01 1.2655279301091322e+00 -7.2794185213275497e-01 -6.1488568991566817e-01 -2.2234728118729521e+00 
        </Neuron>
        <Neuron NSynapses="15">
          2.0654797441165291e+00 1.3538085643599167e+00 2.6420474372248557e+00 7.6554804070189608e-01 4.3823395292309453e-01 2.0133123493307679e+00 -4.9464250663254866e-01 5.2810030374197747e-01 -3.8769662653487740e+00 -6.2631857688904835e-02 5.7288908536323402e-01 2.2118642971742744e+00 6.9104438659881173e-01 -2.0232317077652255e+00 -2.3681410856072095e-02 
        </Neuron>
        <Neuron NSynapses="15">
          -5.8984577665255955e-01 -9.6788745148707567e-01 -9.7957097063422061e-01 3.6687784385310240e-01 6.9137746846623749e-01 -3.1289720743504784e-01 9.2855243568357648e-01 1.1661203257863610e+00 1.6134351354944343e-02 -1.9887441202947528e-01 3.9908642114679799e-01 1.1390979174511786e+00 -1.8146842262035767e+00 1.6934980368570713e+00 -2.0721391821647203e-01 
        </Neuron>
        <Neuron NSynapses="15">
          -8.8457356215186478e-01 1.4828537594897206e+00 -1.5155742175891995e+00 -6.5196561348299198e-01 1.5477600165778693e+00 -4.4716371249459763e-01 3.9620341436850737e-01 -4.8072523318088489e-01 2.2810085049257038e+00 2.0715157786305212e+00 6.2190558871114088e-01 -1.1641123071289625e+00 1.6498212074940466e+00 2.6536698257249771e+00 2.6311460749402610e-01 
        </Neuron>
        <Neuron NSynapses="15">
          1.7787050779495401e+00 5.1027717546573192e-01 2.7006649101319571e+00 -1.7688698387792940e+00 -1.5293621927298201e-01 9.8307681539680736e-01 3.4946388433872710e-01 -2.2503021821844773e+00 -1.8163558626942353e+00 -1.5972210624109953e+00 -7.9272851322363613e-02 1.2720380708349730e+00 1.2487255586807324e+00 -2.8796232208953549e+00 1.9290278276013179e-01 
        </Neuron>
        <Neuron NSynapses="15">
          -4.7407507221205442e-01 9.1500115567554574e-01 9.5069724936067479e-01 1.2598354526547357e+00 7.6505167010589292e-01 -3.5708417332834524e-01 1.0484911829934940e+00 -1.5243484309952587e-01 -1.1858240035525394e+00 1.2522318781817139e+00 -4.1717980196707388e-01 3.0609622711871654e-01 1.0795938943549750e-01 -6.1711018396873218e-01 1.7593120477577004e+00 
        </Neuron>
        <Neuron NSynapses="15">
          -1.3340434196967366e-01 -1.3817225686739851e+00 -1.4151960333140350e+00 -9.6189320823310731e-01 -1.1210428351389641e+00 -1.5452952199226715e+00 8.7075098587252087e-01 1.0013726650278503e+00 1.6520509359899962e+00 -2.6277452993115270e-02 -1.1369705606959601e+00 -1.8001471529643689e+00 1.3816615644997945e+00 1.1249894257153514e+00 -1.5525418659083703e-01 
        </Neuron>
        <Neuron NSynapses="15">
          -1.4602807573796659e+00 5.6735322055126947e-01 -2.7266988628601535e-01 -7.1938347004218850e-01 -8.6178144907056475e-01 -9.5403231765967611e-01 -1.4555892073635945e+00 -1.3216134509263910e+00 6.1105898220667632e-01 -1.6909949114365594e+00 1.3324577240450397e+00 -1.2536558271268652e+00 -9.0729577175695242e-01 1.2833193720782028e+00 9.9455241518313797e-01 
        </Neuron>
        <Neuron NSynapses="15">
          1.8007293807449496e+00 2.5087646962008603e-01 2.8865858298542917e+00 -1.5772544209853001e-01 -1.1405571050151040e+00 2.4852096763130054e+00 1.0833996264412150e-01 7.8837019974355527e-01 -2.6873367866166711e+00 -1.9316893854124473e+00 -8.5608801778848970e-02 1.1062406008160917e+00 -2.0031046447844365e+00 -1.5287600010500660e-01 1.7033565578317939e-02 
        </Neuron>
        <Neuron NSynapses="15">
          3.4753558321986704e+00 -1.7188110295078582e+00 9.8075453305611371e-01 -1.0408904219337972e-01 -9.2921668385861145e-01 3.3127159464981473e+00 -3.5589711785263822e+00 -5.0126871544740981e-01 -1.7110834955308802e+00 -1.1453134547943511e+00 -2.4215796560453065e+00 1.6523127957326929e+00 2.8026131022045159e-01 -3.1106325429244599e+00 2.0310430068736407e+00 
        </Neuron>
        <Neuron NSynapses="15">
          -7.0671990631360404e-01 7.4799678345894149e-01 -5.9770793022852620e-01 1.0980443808448659e+00 9.3355162961109173e-01 -1.1399085714484447e+00 2.2388358775157005e+00 1.2682025153439833e+00 -7.7538103647053735e-01 -2.1796169710476862e-01 1.2673368124179767e+00 1.2136069558939979e+00 6.0283835029969512e-01 1.3154327423215846e+00 -2.1796558188291706e+00 
        </Neuron>
        <Neuron NSynapses="15">
          -9.3832883109713949e-01 8.1257730587691657e-01 -8.5441627071898874e-01 1.8285146010969508e-01 -1.9704554614256380e+00 2.5841044764481453e+00 -3.2693532592346424e+00 -2.8013267664835301e-01 -1.8358440046095732e+00 2.6629844975978895e-01 -1.8885604380925001e+00 -2.8126602814964224e-01 -2.4203922363354944e+00 2.1283086901680415e+00 1.4614382968267443e+00 
        </Neuron>
      </Layer>
      <Layer Index="2" NNeurons="16">
        <Neuron NSynapses="5">
          5.4112816950148064e+00 2.1103044844351775e+00 -1.4668513929170923e+00 2.4720462388290656e+00 2.5768731697388363e+00 
        </Neuron>
        <Neuron NSynapses="5">
          -1.9236923180982182e-01 3.2045316495790357e+00 -1.5136060395515518e+00 1.5989289761772680e+00 3.9625238594914493e-02 
        </Neuron>
        <Neuron NSynapses="5">
          2.6257935976294937e+00 1.8181590176392555e+00 -2.1810985622227723e+00 2.8101202181381386e+00 4.3365373840581984e+00 
        </Neuron>
        <Neuron NSynapses="5">
          -5.4209644759434705e-01 1.0501303849258596e+00 1.4378868601784178e+00 1.9577670368098583e+00 -1.6407675652537923e+00 
        </Neuron>
        <Neuron NSynapses="5">
          5.9425916868827466e-01 1.0659860431432449e+00 -1.8587509304707903e+00 -1.4902998091664699e+00 8.7162422728448241e-01 
        </Neuron>
        <Neuron NSynapses="5">
          3.6847006443233283e+00 3.4001087191286588e+00 -2.9171833878615754e+00 9.4361732968954004e-01 1.9136074682695909e+00 
        </Neuron>
        <Neuron NSynapses="5">
          -2.0753809211191983e+00 -1.9525257817633679e+00 -1.9390932656607929e+00 1.8137880377320079e+00 1.0245218921133015e+00 
        </Neuron>
        <Neuron NSynapses="5">
          -3.0577110658393014e-01 -1.2830368485025138e-02 5.3114328820634726e-01 1.1213035727199379e+00 1.6693753939017528e+00 
        </Neuron>
        <Neuron NSynapses="5">
          7.1777622757880619e-02 -3.3162201112197405e+00 -2.6250547344209036e+00 -2.8160840625645950e-01 6.3382210594373345e-01 
        </Neuron>
        <Neuron NSynapses="5">
          -1.8910850501488397e+00 1.1003190868789827e+00 3.4315865832591991e-01 8.9897759982163006e-01 1.2959562041420651e+00 
        </Neuron>
        <Neuron NSynapses="5">
          -1.0215367900763406e+00 9.6214427371720035e-01 1.2779211207131318e+00 1.1727282735669351e+00 2.9808304012419373e-01 
        </Neuron>
        <Neuron NSynapses="5">
          1.5412441757057140e+00 1.0689194471128856e+00 1.8914118319740036e-01 1.7652516053131191e+00 9.4131840823607771e-01 
        </Neuron>
        <Neuron NSynapses="5">
          8.0627334406386464e-01 -1.0066590257185275e+00 5.4209438126597120e-01 -6.7040996020464194e-01 1.9083489558781677e-01 
        </Neuron>
        <Neuron NSynapses="5">
          -3.4379648008062693e+00 1.1373272761011020e+00 9.1779928967393187e-01 1.9804022906612115e+00 -1.5054540099513849e+00 
        </Neuron>
        <Neuron NSynapses="5">
          2.7816389485826440e+00 1.6042280174065497e+00 2.6672029527191704e-01 2.0651454050745826e+00 5.1155832106084276e-01 
        </Neuron>
        <Neuron NSynapses="5">
          -6.9854554948443048e-01 8.1444868357461120e-01 5.4028229540219064e-01 3.2645478658672435e+00 -8.0489908469564142e-01 
        </Neuron>
      </Layer>
      <Layer Index="3" NNeurons="6">
        <Neuron NSynapses="1">
          -1.2999115299365374e+00 
        </Neuron>
        <Neuron NSynapses="1">
          -7.2131255222874946e-01 
        </Neuron>
        <Neuron NSynapses="1">
          5.5605159954339411e-01 
        </Neuron>
        <Neuron NSynapses="1">
          -1.8711628653093952e+00 
        </Neuron>
        <Neuron NSynapses="1">
          -8.4702129370944168e-01 
        </Neuron>
        <Neuron NSynapses="1">
          -7.7866931401547890e-01 
        </Neuron>
      </Layer>
      <Layer Index="4" NNeurons="1">
        <Neuron NSynapses="0"/>
      </Layer>
    </Layout>
  </Weights>
</MethodSetup>
